\data\
ngram 1=198
ngram 2=336

\1-grams:
-2.563943	<unk>	0
0	<s>	-0.33347613
-0.6022379	</s>	0
-2.4730115	m̀bəmbə	-0.038025036
-2.4730115	kídi	-0.038025036
-2.4730115	amǒs	-0.038025036
-2.4730115	yə	-0.038025036
-2.3330808	o	-0.32316956
-1.6251208	nə	-0.08057397
-2.4730115	vɔɛ́?	-0.038025036
-2.4730115	ndâ	-0.038025036
-2.4730115	bod	-0.038025036
-2.4730115	dzoe	-0.038025036
-2.3330808	e	-1.7353761
-2.4730115	mvoɛ́?	-0.038025036
-2.232844	wa	-0.038025036
-2.0542266	kə	-0.0914187
-2.3330808	vé?	-1.7353761
-2.4730115	dzé	-0.038025036
-2.4730115	wā	-0.038025036
-2.4730115	bɔ?	-0.038025036
-2.3330808	mə	-0.15230915
-2.4730115	mvɔɛ́.	-0.038025036
-2.4730115	bə́sə	-0.038025036
-2.232844	bə́	-0.15230915
-2.4730115	mvɔɛ́!	-0.038025036
-2.3330808	ma	-0.12600502
-2.4730115	ǎfub	-0.038025036
-2.3330808	yám	-0.038025036
-2.3330808	bídí	-1.7353761
-1.9280303	á	-0.038025036
-2.4730115	ǹsom	-0.038025036
-1.9280303	a	-0.12241753
-2.4730115	mákíd	-0.038025036
-2.4730115	kaiza	-0.038025036
-2.4730115	ó	-0.038025036
-2.4730115	bələ	-0.038025036
-2.4730115	kíg	-0.038025036
-2.4730115	mbəmbə	-0.038025036
-2.4730115	nyɔ́l	-0.038025036
-2.4730115	biá	-0.038025036
-2.4730115	yikə̄yén	-0.038025036
-2.4730115	ǹgəngáŋ	-0.038025036
-2.4730115	wóg	-0.038025036
-2.4730115	ekódé	-0.038025036
-2.4730115	abum	-0.038025036
-2.4730115	ngâyiyǎbyé	-0.038025036
-2.4730115	naná	-0.038025036
-2.4730115	mvɔɛ́	-0.038025036
-2.3330808	mǎnyǎŋ	-1.7353761
-2.4730115	wama	-0.038025036
-2.4730115	ayilúg	-0.038025036
-2.4730115	Fám	-0.038025036
-2.4730115	yáyónkíg	-0.038025036
-2.232844	é	-0.25410017
-2.4730115	miníngá	-0.038025036
-2.4730115	nyɔ́	-0.038025036
-2.0542266	nyəb	-0.15230915
-2.4730115	fám	-0.038025036
-2.3330808	nyí	-0.038025036
-2.3330808	ya	-0.038025036
-2.3330808	ǹtól	-0.038025036
-2.4730115	ayǎb	-0.038025036
-2.4730115	lodo	-0.038025036
-2.3330808	mɔ́n	-0.038025036
-2.4730115	bəbonde	-0.038025036
-2.4730115	báma	-0.038025036
-2.4730115	bəfám	-0.038025036
-2.232844	yǎ	-0.49805057
-2.4730115	dzāl	-0.038025036
-2.3330808	bá	-0.038025036
-2.4730115	lɛ̂	-0.038025036
-2.3330808	élé	-1.7353761
-2.4730115	ásí	-1.7353761
-2.4730115	byakə	-0.038025036
-2.4730115	bəbə	-0.038025036
-2.232844	mod	-0.038025036
-2.4730115	fəfə	-0.038025036
-2.4730115	kúb	-0.038025036
-2.4730115	lɔ́ŋ	-0.038025036
-2.3330808	kídí	-0.038025036
-2.4730115	myál	-0.038025036
-2.4730115	wákuí	-0.038025036
-2.4730115	ai	-0.038025036
-2.4730115	alú	-0.038025036
-2.4730115	Ongɔlɔ	-0.038025036
-2.3330808	anə	-0.038025036
-2.4730115	m̀fəfə́g	-0.038025036
-2.4730115	bə́ngɔnɔ	-0.038025036
-2.4730115	anyú	-0.038025036
-2.4730115	mə́ndím	-0.038025036
-2.4730115	zing	-0.038025036
-2.4730115	byálí	-0.038025036
-2.4730115	mayi	-0.038025036
-2.4730115	nə̄	-0.038025036
-2.4730115	madí	-0.038025036
-2.4730115	fulan	-0.038025036
-2.4730115	bad	-0.038025036
-2.4730115	tsog	-0.038025036
-2.4730115	mvóé	-0.038025036
-2.4730115	dzama	-0.038025036
-2.4730115	mim̀bú	-0.038025036
-2.4730115	myálod	-0.038025036
-2.3330808	ding	-0.038025036
-2.4730115	və	-0.038025036
-2.4730115	yón	-0.038025036
-2.4730115	âfan	-0.038025036
-2.4730115	evúndi	-0.038025036
-2.3330808	yá	-0.038025036
-2.4730115	lod	-0.038025036
-2.4730115	ǹnə́m	-0.038025036
-2.4730115	wá	-0.038025036
-2.4730115	sán	-0.038025036
-2.3330808	nyé	-0.038025036
-2.4730115	êsyé	-0.038025036
-2.4730115	yəbə	-0.038025036
-2.4730115	kɔn	-0.038025036
-2.4730115	sɔ́	-0.038025036
-2.4730115	fas	-0.038025036
-2.4730115	abán	-0.038025036
-2.4730115	ebyandí	-0.038025036
-2.4730115	fəg	-0.038025036
-2.4730115	bə̌bə	-0.038025036
-2.4730115	ǹló	-0.038025036
-2.4730115	dzóbo	-0.038025036
-2.4730115	óyɔ́	-0.038025036
-2.4730115	vááni	-0.038025036
-2.4730115	wɔ́bɔ	-0.038025036
-2.4730115	kələ́	-0.038025036
-2.4730115	fəb	-0.038025036
-2.4730115	ndóan	-0.038025036
-2.4730115	mvyě	-0.038025036
-2.3330808	vé	-0.1982308
-2.4730115	etǔn	-0.038025036
-2.3330808	ndá	-0.038025036
-2.4730115	dzáma	-0.038025036
-2.4730115	esɔ́á	-0.038025036
-2.4730115	bɔ̌bə̄dzǎŋ	-0.038025036
-2.4730115	ńnyə	-0.038025036
-2.4730115	anə́	-0.038025036
-2.4730115	ńtól	-0.038025036
-2.4730115	dulu	-0.038025036
-2.4730115	okídí	-0.038025036
-2.4730115	bikai	-0.038025036
-2.3330808	bí	-0.038025036
-2.4730115	enyiŋ	-0.038025036
-2.4730115	dzə́m	-0.038025036
-2.232844	m̀bəŋ	-0.1982308
-2.4730115	yəm	-0.038025036
-2.4730115	afan	-0.038025036
-2.4730115	bɔ́d	-0.038025036
-2.4730115	bɔ́	-0.038025036
-2.4730115	bía	-0.038025036
-2.4730115	bəyə́bə	-0.038025036
-2.4730115	ā	-0.038025036
-2.4730115	zěn	-0.038025036
-2.4730115	tádi	-0.038025036
-2.4730115	nə̌	-0.038025036
-2.4730115	atyé	-0.038025036
-2.4730115	m̀bíl	-0.038025036
-2.4730115	və́	-0.038025036
-2.4730115	ǹtsogán	-0.038025036
-2.4730115	dzam	-0.038025036
-2.4730115	éngóngɔ́l	-0.038025036
-2.4730115	mə̌	-0.038025036
-2.4730115	sende	-0.038025036
-2.4730115	dzə́ŋ	-0.038025036
-2.4730115	bílɔ́g	-0.038025036
-2.4730115	bələ̄	-0.038025036
-2.4730115	dzwé	-0.038025036
-2.4730115	dáma	-0.038025036
-2.4730115	kus	-0.038025036
-2.4730115	biyé	-0.038025036
-2.4730115	mayəm	-0.038025036
-2.4730115	yen	-0.038025036
-2.4730115	mininagá	-0.038025036
-2.4730115	sɔ́m	-0.038025036
-2.4730115	dúgan	-0.038025036
-2.4730115	dzié	-0.038025036
-2.4730115	ayón	-0.038025036
-2.4730115	dzáɛ	-0.038025036
-2.4730115	abǒg	-0.038025036
-2.4730115	yə̄gé	-0.038025036
-2.4730115	abuí	-0.038025036
-2.4730115	miǹkúd	-0.038025036
-2.4730115	myávín	-0.038025036
-2.4730115	ngə	-0.038025036
-2.4730115	yəmə	-0.038025036
-2.4730115	kədzɔág	-0.038025036
-2.4730115	âfúb	-0.038025036
-2.4730115	búg	-0.038025036
-2.4730115	fón	-0.038025036
-2.4730115	daŋ	-0.038025036
-2.4730115	dzǎl	-0.038025036
-2.4730115	ewólo	-0.038025036
-2.4730115	miǹtag	-0.038025036
-2.4730115	engongɔ́l	-0.038025036
-2.4730115	ǹnǒm	-0.038025036

\2-grams:
-0.5047604	kídi </s>
-0.5047604	amǒs </s>
-0.67453915	nə </s>
-0.5047604	vɔɛ́? </s>
-0.5047604	mvoɛ́? </s>
-0.6145364	wa </s>
-0.006033123	vé? </s>
-0.5047604	bɔ? </s>
-0.5047604	mvɔɛ́. </s>
-0.5047604	mvɔɛ́! </s>
-0.7190675	ma </s>
-0.5047604	ǎfub </s>
-0.5672482	yám </s>
-0.006033123	bídí </s>
-0.5047604	ǹsom </s>
-0.5047604	mákíd </s>
-0.5047604	kaiza </s>
-0.5047604	nyɔ́l </s>
-0.5047604	ǹgəngáŋ </s>
-0.5047604	ekódé </s>
-0.5047604	abum </s>
-0.5047604	ngâyiyǎbyé </s>
-0.5047604	mvɔɛ́ </s>
-0.5047604	ayilúg </s>
-0.5047604	yáyónkíg </s>
-0.34599096	nyəb </s>
-0.5672482	nyí </s>
-0.5047604	báma </s>
-0.5672482	dzāl </s>
-0.006033123	ásí </s>
-0.59024906	mod </s>
-0.5047604	fəfə </s>
-0.5672482	kídí </s>
-0.5047604	alú </s>
-0.5047604	mə́ndím </s>
-0.5047604	madí </s>
-0.5047604	fulan </s>
-0.5047604	tsog </s>
-0.5047604	dzama </s>
-0.5047604	myálod </s>
-0.5672482	ding </s>
-0.5047604	âfan </s>
-0.5047604	lod </s>
-0.5672482	nyé </s>
-0.5047604	êsyé </s>
-0.5047604	yəbə </s>
-0.5047604	kɔn </s>
-0.5047604	fas </s>
-0.5047604	abán </s>
-0.5047604	ebyandí </s>
-0.5047604	fəg </s>
-0.5047604	dzóbo </s>
-0.5047604	óyɔ́ </s>
-0.5047604	wɔ́bɔ </s>
-0.5047604	ndóan </s>
-0.2800182	vé </s>
-0.5047604	bɔ̌bə̄dzǎŋ </s>
-0.5047604	ńtól </s>
-0.5047604	okídí </s>
-0.2800182	m̀bəŋ </s>
-0.5047604	afan </s>
-0.5047604	zěn </s>
-0.5047604	m̀bíl </s>
-0.5047604	ǹtsogán </s>
-0.5047604	éngóngɔ́l </s>
-0.5047604	sende </s>
-0.5047604	bílɔ́g </s>
-0.5047604	dáma </s>
-0.5047604	biyé </s>
-0.5047604	mayəm </s>
-0.5047604	mininagá </s>
-0.5047604	sɔ́m </s>
-0.5047604	dzié </s>
-0.5047604	ayón </s>
-0.5047604	abǒg </s>
-0.5047604	abuí </s>
-0.5047604	myávín </s>
-0.5047604	yəmə </s>
-0.5047604	kədzɔág </s>
-0.5047604	âfúb </s>
-0.5047604	fón </s>
-0.5047604	dzǎl </s>
-0.5047604	ewólo </s>
-0.5047604	miǹtag </s>
-0.5047604	engongɔ́l </s>
-1.6488479	<s> m̀bəmbə
-1.3467963	m̀bəmbə kídi
-1.3467963	m̀bəmbə amǒs
-1.6488479	<s> yə
-1.8585271	<s> o
-1.3356297	yə o
-0.27074227	o nə
-0.007868957	e nə
-0.5352949	mə nə
-0.5352949	bə́ nə
-0.9457271	a nə
-0.39163497	é nə
-1.1962979	mayi nə
-1.1962979	bí nə
-1.1962979	tádi nə
-2.1683075	nə vɔɛ́?
-1.3467963	yə ndâ
-1.060904	ndâ bod
-1.060904	bod dzoe
-1.0550869	dzoe e
-1.0550869	mvyě e
-2.1683075	nə mvoɛ́?
-1.6012183	<s> wa
-1.0496745	və wa
-1.0496745	və́ wa
-1.6564274	wa kə
-1.7537516	kə kə
-0.8119327	ma kə
-1.9801054	a kə
-1.8464366	kə vé?
-1.0550869	sɔ́ vé?
-2.6102622	<s> dzé
-1.060904	dzé wā
-1.060904	wā bɔ?
-1.8585271	<s> mə
-1.0550869	ngə mə
-2.1683075	nə mvɔɛ́.
-2.6102622	<s> bə́sə
-1.6270932	<s> bə́
-1.0496745	bə́sə bə́
-2.0849376	a bə́
-2.1683075	nə mvɔɛ́!
-0.71063	<s> ma
-1.0550869	lodo ma
-1.8792511	kə ǎfub
-2.5161543	<s> yám
-2.1268718	ma yám
-1.3356297	yám bídí
-1.3356297	nyé bídí
-0.8327205	kə á
-1.5335889	nyəb á
-1.023901	lɛ̂ á
-1.023901	lɔ́ŋ á
-1.023901	dúgan á
-1.8222046	á ǹsom
-0.75264895	<s> a
-1.023901	naná a
-1.023901	nyɔ́ a
-1.023901	ayǎb a
-1.023901	zing a
-1.8222046	á mákíd
-2.1683075	nə kaiza
-2.6102622	<s> ó
-1.060904	ó bələ
-1.060904	bələ kíg
-1.060904	kíg mbəmbə
-1.060904	mbəmbə nyɔ́l
-2.6102622	<s> biá
-1.060904	biá yikə̄yén
-1.060904	yikə̄yén ǹgəngáŋ
-1.2606649	ma wóg
-1.5082597	wóg ekódé
-2.1683075	nə abum
-2.197293	a ngâyiyǎbyé
-2.6102622	<s> naná
-2.1683075	nə mvɔɛ́
-2.5161543	<s> mǎnyǎŋ
-1.3356297	ǹtól mǎnyǎŋ
-0.008034445	mǎnyǎŋ wama
-1.3467963	wama ayilúg
-2.6102622	<s> Fám
-1.060904	Fám yáyónkíg
-1.8413302	<s> é
-1.0496745	byálí é
-1.0496745	dzáma é
-1.7295313	é miníngá
-1.060904	miníngá nyɔ́
-1.9801054	a nyəb
-1.3010088	ya nyəb
-1.3010088	yá nyəb
-1.0365967	daŋ nyəb
-1.7295313	é fám
-1.0550869	fám nyí
-1.3356297	kídí nyí
-1.3356297	nyí ya
-1.0550869	kúb ya
-2.5161543	<s> ǹtól
-2.1051378	nə ǹtól
-1.3467963	wama ayǎb
-2.197293	a lodo
-2.5161543	<s> mɔ́n
-1.3356297	ǹtól mɔ́n
-1.3467963	mɔ́n bəbonde
-1.060904	bəbonde báma
-2.6102622	<s> bəfám
-1.0496745	bəfám yǎ
-1.4775076	mod yǎ
-1.0496745	bəyə́bə yǎ
-0.18344429	yǎ dzāl
-2.5161543	<s> bá
-1.3356297	dzāl bá
-1.3467963	bá lɛ̂
-1.7896549	á élé
-1.4921569	mod élé
-0.008034445	élé ásí
-2.6102622	<s> byakə
-1.060904	byakə bəbə
-1.0496745	bəbə mod
-1.0496745	m̀fəfə́g mod
-1.0496745	ǹnǒm mod
-1.5374072	yǎ fəfə
-2.6102622	<s> kúb
-1.3467963	ya lɔ́ŋ
-1.7896549	á kídí
-1.7132382	é kídí
-2.6102622	<s> myál
-1.060904	myál wákuí
-1.060904	wákuí ai
-1.060904	ai alú
-2.6102622	<s> Ongɔlɔ
-1.0550869	Ongɔlɔ anə
-1.0550869	esɔ́á anə
-1.3467963	anə m̀fəfə́g
-2.6102622	<s> bə́ngɔnɔ
-1.060904	bə́ngɔnɔ anyú
-1.060904	anyú mə́ndím
-1.3467963	mɔ́n zing
-2.197293	a byálí
-1.6488479	<s> mayi
-1.3467963	mayi nə̄
-1.060904	nə̄ madí
-1.3467963	bá fulan
-2.186446	ma bad
-1.060904	bad tsog
-2.1683075	nə mvóé
-1.060904	mvóé dzama
-2.6102622	<s> mim̀bú
-1.060904	mim̀bú myálod
-1.7392848	wa ding
-2.1268718	ma ding
-1.3467963	ding və
-2.186446	ma yón
-1.060904	yón âfan
-2.6102622	<s> evúndi
-1.0550869	evúndi yá
-1.0550869	enyiŋ yá
-1.3467963	yá lod
-2.6102622	<s> ǹnə́m
-1.060904	ǹnə́m wá
-1.060904	wá sán
-1.0550869	sán nyé
-1.0550869	vááni nyé
-1.8792511	kə êsyé
-2.186446	ma yəbə
-2.186446	ma kɔn
-1.7681488	wa sɔ́
-2.186446	ma fas
-2.1683075	nə abán
-2.1683075	nə ebyandí
-2.1683075	nə fəg
-2.197293	a bə̌bə
-1.060904	bə̌bə ǹló
-1.060904	ǹló dzóbo
-1.8792511	kə óyɔ́
-2.6102622	<s> vááni
-2.197293	a wɔ́bɔ
-2.6102622	<s> kələ́
-1.060904	kələ́ fəb
-1.060904	fəb ndóan
-2.6102622	<s> mvyě
-1.0116893	nə vé
-1.3356297	anə vé
-2.6102622	<s> etǔn
-1.7896549	á ndá
-1.0550869	etǔn ndá
-1.3467963	ndá dzáma
-2.6102622	<s> esɔ́á
-2.1683075	nə bɔ̌bə̄dzǎŋ
-2.6102622	<s> ńnyə
-1.060904	ńnyə anə́
-1.060904	anə́ ńtól
-1.8222046	á dulu
-1.060904	dulu okídí
-2.6102622	<s> bikai
-2.5161543	<s> bí
-1.0550869	bikai bí
-2.6102622	<s> enyiŋ
-2.197293	a dzə́m
-1.0496745	dzə́m m̀bəŋ
-1.0496745	bɔ́d m̀bəŋ
-1.0496745	bía m̀bəŋ
-2.186446	ma yəm
-1.060904	yəm afan
-2.197293	a bɔ́d
-2.197293	a bɔ́
-1.060904	bɔ́ bía
-2.6102622	<s> bəyə́bə
-2.1683075	nə ā
-1.060904	ā zěn
-1.0372729	a tádi
-1.3467963	tádi nə̌
-1.060904	nə̌ atyé
-1.060904	atyé m̀bíl
-2.186446	ma və́
-1.7681488	wa ǹtsogán
-2.6102622	<s> dzam
-1.060904	dzam éngóngɔ́l
-2.6102622	<s> mə̌
-1.060904	mə̌ sende
-2.186446	ma dzə́ŋ
-1.060904	dzə́ŋ bílɔ́g
-2.197293	a bələ̄
-1.060904	bələ̄ dzwé
-1.060904	dzwé dáma
-2.186446	ma kus
-1.060904	kus biyé
-2.1683075	nə mayəm
-2.197293	a yen
-1.060904	yen mininagá
-1.5082597	wóg sɔ́m
-2.197293	a dúgan
-1.3467963	ndá dzié
-2.1683075	nə ayón
-1.7681488	wa dzáɛ
-1.060904	dzáɛ abǒg
-1.3467963	bí yə̄gé
-1.060904	yə̄gé abuí
-2.6102622	<s> miǹkúd
-1.060904	miǹkúd myávín
-2.6102622	<s> ngə
-1.632128	mə yəmə
-2.186446	ma kədzɔág
-1.632128	bə́ âfúb
-2.197293	a búg
-1.060904	búg fón
-2.197293	a daŋ
-1.8222046	á dzǎl
-2.1683075	nə ewólo
-1.5082597	wóg miǹtag
-2.1683075	nə engongɔ́l
-2.6102622	<s> ǹnǒm

\end\
