\data\
ngram 1=312
ngram 2=618
ngram 3=660

\1-grams:
-2.838718	<unk>	0
0	<s>	-0.12598746
-0.8398207	</s>	0
-2.7260237	4	-0.12598749
-2.263996	m̀bəmbə	-0.028955864
-2.7260237	kídi	-0.12598749
-2.7260237	5	-0.12598749
-2.7260237	amǒs	-0.12598749
-2.7260237	7	-0.12598749
-2.263996	yə	-0.028955864
-1.9871861	o	-0.7643484
-1.8685195	nə	-0.10823439
-2.7260237	vɔɛ́	-0.12598749
-2.7260237	9	-0.12598749
-2.7260237	ndâ	-0.12598749
-2.7260237	bod	-0.12598749
-2.7260237	dzoe	-0.12598749
-2.6117501	e	-0.028955864
-2.7260237	mvoɛ́	-0.12598749
-2.7260237	10	-0.12598749
-1.6987923	wa	-0.04670487
-2.263996	kə	-0.09598373
-2.263996	vé	-0.21694678
-2.7260237	11	-0.12598749
-2.4171467	dzé	-0.07476742
-2.7260237	wā	-0.12598749
-2.7260237	bɔ	-0.12598749
-2.7260237	12	-0.12598749
-1.8685195	mə	-0.6636442
-2.7260237	mvɔɛ́	-0.12598749
-2.7260237	13	-0.12598749
-2.6117501	bə́sə	-0.028955864
-2.061414	bə́	-0.487553
-2.7260237	mvɔɛ́!	-0.12598749
-2.7260237	14	-0.12598749
-1.1538486	ma	-0.2201587
-2.7260237	ǎfub	-0.12598749
-2.7260237	15	-0.12598749
-2.4171467	yám	-0.07476742
-2.6117501	bídí	-0.07476742
-2.7260237	16	-0.12598749
-2.1509984	á	-0.12598749
-2.7260237	ǹsom	-0.12598749
-2.7260237	17	-0.12598749
-1.2070526	a	-0.1396698
-2.7260237	mákíd	-0.12598749
-2.7260237	18	-0.12598749
-2.263996	mod	-0.12598749
-2.7260237	bitá	-0.12598749
-2.7260237	19	-0.12598749
-2.7260237	kaiza	-0.12598749
-2.7260237	20	-0.12598749
-2.6117501	ó	-0.028955864
-2.7260237	bələ	-0.12598749
-2.7260237	kíg	-0.12598749
-2.7260237	mbəmbə	-0.12598749
-2.7260237	nyɔ́l	-0.12598749
-2.7260237	21	-0.12598749
-2.6117501	biá	-0.028955864
-2.7260237	yikə̄yén	-0.12598749
-2.7260237	ǹgəngáŋ	-0.12598749
-2.7260237	22	-0.12598749
-2.7260237	wóg	-0.12598749
-2.7260237	ekódé	-0.12598749
-2.7260237	23	-0.12598749
-2.7260237	zie	-0.12598749
-2.7260237	24	-0.12598749
-2.7260237	abum	-0.12598749
-2.7260237	25	-0.12598749
-2.7260237	ngâyiyǎbyé	-0.12598749
-2.7260237	26	-0.12598749
-2.6117501	naná	-0.028955864
-2.7260237	27	-0.12598749
-2.4171467	mǎnyǎŋ	-0.3963716
-2.7260237	wama	-0.12598749
-2.7260237	ayilúg	-0.12598749
-2.7260237	28	-0.12598749
-2.6117501	Fám	-0.028955864
-2.7260237	yáyónkíg	-0.12598749
-2.7260237	29	-0.12598749
-1.9871861	é	-0.1476317
-2.7260237	miníngá	-0.12598749
-2.7260237	nyɔ́	-0.12598749
-2.263996	nyəb	-0.18501797
-2.7260237	30	-0.12598749
-2.7260237	fám	-0.12598749
-2.6117501	nyí	-0.12598749
-2.6117501	ya	-0.12598749
-2.7260237	31	-0.12598749
-2.4171467	ǹtól	-0.05895381
-2.7260237	ayǎb	-0.12598749
-2.7260237	lodo	-0.12598749
-2.7260237	32	-0.12598749
-2.4171467	mɔ́n	-0.05895381
-2.7260237	bəbonde	-0.12598749
-2.7260237	báma	-0.12598749
-2.7260237	33	-0.12598749
-2.6117501	bəfám	-0.028955864
-2.4171467	yǎ	-0.05895381
-2.7260237	dzāl	-0.12598749
-2.4171467	bá	-0.05895381
-2.7260237	lɛ̂	-0.12598749
-2.6117501	élé	-0.028955864
-2.7260237	ásí	-0.12598749
-2.7260237	34	-0.12598749
-2.6117501	byakə	-0.028955864
-2.7260237	bəbə	-0.12598749
-2.7260237	fəfə	-0.12598749
-2.7260237	35	-0.12598749
-2.6117501	kúb	-0.028955864
-2.7260237	lɔ́ŋ	-0.12598749
-2.6117501	kídí	-0.12598749
-2.7260237	36	-0.12598749
-2.6117501	myál	-0.028955864
-2.7260237	wákuí	-0.12598749
-2.7260237	ai	-0.12598749
-2.7260237	alú	-0.12598749
-2.7260237	37	-0.12598749
-2.6117501	Ongɔlɔ	-0.028955864
-2.4171467	anə	-0.05895381
-2.7260237	m̀fəfə́g	-0.12598749
-2.7260237	38	-0.12598749
-2.4171467	bə́ngɔnɔ	-0.05895381
-2.7260237	anyú	-0.12598749
-2.7260237	mə́ndím	-0.12598749
-2.7260237	39	-0.12598749
-2.6117501	esyâ	-0.028955864
-2.7260237	nyǔ	-0.12598749
-2.7260237	məyɔg	-0.12598749
-2.7260237	40	-0.12598749
-2.7260237	zing	-0.12598749
-2.7260237	byálí	-0.12598749
-2.7260237	41	-0.12598749
-2.061414	mayi	-0.29025766
-2.7260237	nə̄	-0.12598749
-2.7260237	madí	-0.12598749
-2.7260237	42	-0.12598749
-2.6117501	mɔ́ngɔ́	-0.028955864
-2.7260237	məwóg	-0.12598749
-2.7260237	43	-0.12598749
-2.7260237	fulan	-0.12598749
-2.7260237	44	-0.12598749
-2.7260237	bad	-0.12598749
-2.7260237	tsog	-0.12598749
-2.7260237	45	-0.12598749
-2.7260237	mvóé	-0.12598749
-2.7260237	dzama	-0.12598749
-2.7260237	46	-0.12598749
-2.6117501	mim̀bú	-0.028955864
-2.7260237	myálod	-0.12598749
-2.7260237	47	-0.12598749
-2.6117501	ding	-0.12598749
-2.7260237	və	-0.12598749
-2.7260237	48	-0.12598749
-2.7260237	yón	-0.12598749
-2.7260237	âfan	-0.12598749
-2.7260237	50	-0.12598749
-2.6117501	evúndi	-0.028955864
-2.6117501	yá	-0.12598749
-2.7260237	lod	-0.12598749
-2.7260237	51	-0.12598749
-2.6117501	ǹnə́m	-0.028955864
-2.7260237	wá	-0.12598749
-2.7260237	sán	-0.12598749
-2.6117501	nyé	-0.12598749
-2.7260237	52	-0.12598749
-2.7260237	êsyé	-0.12598749
-2.7260237	53	-0.12598749
-2.7260237	yəbə	-0.12598749
-2.7260237	54	-0.12598749
-2.6117501	dí	-0.07476742
-2.7260237	55	-0.12598749
-2.7260237	kɔn	-0.12598749
-2.7260237	56	-0.12598749
-2.7260237	nyiŋ	-0.12598749
-2.7260237	âbə	-0.12598749
-2.7260237	zá	-0.12598749
-2.7260237	57	-0.12598749
-2.6117501	dzə́ŋ	-0.12598749
-2.7260237	58	-0.12598749
-2.7260237	sɔ́	-0.12598749
-2.7260237	59	-0.12598749
-2.7260237	fas	-0.12598749
-2.7260237	60	-0.12598749
-2.7260237	abán	-0.12598749
-2.7260237	61	-0.12598749
-2.7260237	62	-0.12598749
-2.7260237	ebyandí	-0.12598749
-2.7260237	63	-0.12598749
-2.7260237	fəg	-0.12598749
-2.7260237	64	-0.12598749
-2.7260237	bə̌bə	-0.12598749
-2.7260237	ǹló	-0.12598749
-2.7260237	dzóbo	-0.12598749
-2.7260237	65	-0.12598749
-2.7260237	óyɔ́	-0.12598749
-2.7260237	66	-0.12598749
-2.6117501	vááni	-0.028955864
-2.7260237	67	-0.12598749
-2.7260237	wɔ́bɔ	-0.12598749
-2.7260237	68	-0.12598749
-2.6117501	kələ́	-0.028955864
-2.7260237	fəb	-0.12598749
-2.7260237	ndóan	-0.12598749
-2.7260237	69	-0.12598749
-2.6117501	mvyě	-0.028955864
-2.7260237	70	-0.12598749
-2.6117501	etǔn	-0.028955864
-2.6117501	ndá	-0.12598749
-2.7260237	dzáma	-0.12598749
-2.7260237	71	-0.12598749
-2.6117501	esɔ́á	-0.028955864
-2.7260237	73	-0.12598749
-2.6117501	nyɔá	-0.028955864
-2.7260237	74	-0.12598749
-2.7260237	bɔ̌bə̄dzǎŋ	-0.12598749
-2.7260237	75	-0.12598749
-2.6117501	ńnyə	-0.028955864
-2.7260237	anə́	-0.12598749
-2.7260237	ńtól	-0.12598749
-2.7260237	76	-0.12598749
-2.7260237	dulu	-0.12598749
-2.7260237	okídí	-0.12598749
-2.7260237	77	-0.12598749
-2.6117501	bikai	-0.028955864
-2.4171467	bí	-0.05895381
-2.7260237	78	-0.12598749
-2.6117501	enyiŋ	-0.028955864
-2.7260237	79	-0.12598749
-2.7260237	dzə́m	-0.12598749
-2.4171467	m̀bəŋ	-0.3963716
-2.7260237	80	-0.12598749
-2.7260237	yəm	-0.12598749
-2.7260237	afan	-0.12598749
-2.7260237	82	-0.12598749
-2.7260237	bɔ́d	-0.12598749
-2.7260237	83	-0.12598749
-2.6117501	akúma	-0.028955864
-2.6117501	dáma	-0.12598749
-2.7260237	84	-0.12598749
-2.7260237	bɔ́	-0.12598749
-2.7260237	bía	-0.12598749
-2.7260237	85	-0.12598749
-2.6117501	bəyə́bə	-0.028955864
-2.7260237	86	-0.12598749
-2.7260237	ā	-0.12598749
-2.7260237	zěn	-0.12598749
-2.7260237	87	-0.12598749
-2.7260237	tádi	-0.12598749
-2.7260237	nə̌	-0.12598749
-2.7260237	atyé	-0.12598749
-2.7260237	m̀bíl	-0.12598749
-2.7260237	88	-0.12598749
-2.7260237	və́	-0.12598749
-2.7260237	ǹtsogán	-0.12598749
-2.7260237	89	-0.12598749
-2.6117501	dzam	-0.028955864
-2.7260237	éngóngɔ́l	-0.12598749
-2.7260237	90	-0.12598749
-2.6117501	mə̌	-0.028955864
-2.7260237	sende	-0.12598749
-2.7260237	91	-0.12598749
-2.7260237	bílɔ́g	-0.12598749
-2.7260237	92	-0.12598749
-2.7260237	bələ̄	-0.12598749
-2.7260237	dzwé	-0.12598749
-2.7260237	93	-0.12598749
-2.7260237	kus	-0.12598749
-2.7260237	biyé	-0.12598749
-2.7260237	94	-0.12598749
-2.7260237	95	-0.12598749
-2.7260237	mayəm	-0.12598749
-2.7260237	96	-0.12598749
-2.7260237	yen	-0.12598749
-2.7260237	mininagá	-0.12598749
-2.7260237	97	-0.12598749
-2.7260237	sɔ́m	-0.12598749
-2.7260237	98	-0.12598749
-2.7260237	dúgan	-0.12598749
-2.7260237	dzié	-0.12598749
-2.7260237	99	-0.12598749
-2.7260237	ayón	-0.12598749
-2.7260237	100	-0.12598749
-2.7260237	dzáɛ	-0.12598749
-2.7260237	abǒg	-0.12598749
-2.7260237	101	-0.12598749
-2.7260237	yə̄gé	-0.12598749
-2.7260237	abuí	-0.12598749
-2.7260237	102	-0.12598749
-2.6117501	miǹkúd	-0.028955864
-2.7260237	myávín	-0.12598749
-2.7260237	103	-0.12598749
-2.6117501	ngə	-0.028955864
-2.7260237	yəmə	-0.12598749
-2.7260237	104	-0.12598749
-2.7260237	kədzɔág	-0.12598749
-2.7260237	105	-0.12598749
-2.7260237	âfúb	-0.12598749
-2.7260237	106	-0.12598749
-2.7260237	búg	-0.12598749
-2.7260237	fón	-0.12598749
-2.7260237	107	-0.12598749
-2.7260237	daŋ	-0.12598749
-2.7260237	dzǎl	-0.12598749
-2.7260237	108	-0.12598749
-2.7260237	ewólo	-0.12598749
-2.7260237	109	-0.12598749
-2.7260237	miǹtag	-0.12598749
-2.7260237	110	-0.12598749
-2.7260237	engongɔ́l	-0.12598749
-2.7260237	111	-0.12598749
-2.6117501	ǹnǒm	-0.028955864

\2-grams:
-0.6306067	kídi </s>	0
-0.6306067	amǒs </s>	0
-0.90939814	nə </s>	0
-0.6306067	vɔɛ́ </s>	0
-0.6306067	mvoɛ́ </s>	0
-0.8337269	wa </s>	0
-0.43496382	vé </s>	0
-0.73356545	dzé </s>	0
-0.6306067	bɔ </s>	0
-0.7164105	mvɔɛ́ </s>	0
-0.6306067	mvɔɛ́! </s>	0
-1.0329379	ma </s>	0
-0.6306067	ǎfub </s>	0
-0.73356545	yám </s>	0
-0.81252545	bídí </s>	0
-0.6306067	ǹsom </s>	0
-0.6306067	mákíd </s>	0
-0.79982567	mod </s>	0
-0.6306067	bitá </s>	0
-0.6306067	kaiza </s>	0
-0.6306067	nyɔ́l </s>	0
-0.6306067	ǹgəngáŋ </s>	0
-0.6306067	ekódé </s>	0
-0.6306067	zie </s>	0
-0.6306067	abum </s>	0
-0.6306067	ngâyiyǎbyé </s>	0
-0.6306067	ayilúg </s>	0
-0.6306067	yáyónkíg </s>	0
-0.45473766	nyəb </s>	0
-0.7164105	nyí </s>	0
-0.6306067	báma </s>	0
-0.7164105	dzāl </s>	0
-0.7164105	ásí </s>	0
-0.6306067	fəfə </s>	0
-0.7164105	kídí </s>	0
-0.6306067	alú </s>	0
-0.6306067	mə́ndím </s>	0
-0.6306067	məyɔg </s>	0
-0.6306067	madí </s>	0
-0.6306067	məwóg </s>	0
-0.6306067	fulan </s>	0
-0.6306067	tsog </s>	0
-0.6306067	dzama </s>	0
-0.6306067	myálod </s>	0
-0.7164105	ding </s>	0
-0.6306067	âfan </s>	0
-0.6306067	lod </s>	0
-0.7164105	nyé </s>	0
-0.6306067	êsyé </s>	0
-0.6306067	yəbə </s>	0
-0.81252545	dí </s>	0
-0.6306067	kɔn </s>	0
-0.6306067	zá </s>	0
-0.6306067	fas </s>	0
-0.6306067	abán </s>	0
-0.6306067	ebyandí </s>	0
-0.6306067	fəg </s>	0
-0.6306067	dzóbo </s>	0
-0.6306067	óyɔ́ </s>	0
-0.6306067	wɔ́bɔ </s>	0
-0.6306067	ndóan </s>	0
-0.6306067	bɔ̌bə̄dzǎŋ </s>	0
-0.6306067	ńtól </s>	0
-0.6306067	okídí </s>	0
-0.44693398	m̀bəŋ </s>	0
-0.6306067	afan </s>	0
-0.7164105	dáma </s>	0
-0.6306067	zěn </s>	0
-0.6306067	m̀bíl </s>	0
-0.6306067	ǹtsogán </s>	0
-0.6306067	éngóngɔ́l </s>	0
-0.6306067	sende </s>	0
-0.6306067	bílɔ́g </s>	0
-0.6306067	biyé </s>	0
-0.6306067	mayəm </s>	0
-0.6306067	mininagá </s>	0
-0.6306067	sɔ́m </s>	0
-0.6306067	dzié </s>	0
-0.6306067	ayón </s>	0
-0.6306067	abǒg </s>	0
-0.6306067	abuí </s>	0
-0.6306067	myávín </s>	0
-0.6306067	yəmə </s>	0
-0.6306067	kədzɔág </s>	0
-0.6306067	âfúb </s>	0
-0.6306067	fón </s>	0
-0.6306067	dzǎl </s>	0
-0.6306067	ewólo </s>	0
-0.6306067	miǹtag </s>	0
-0.6306067	engongɔ́l </s>	0
-2.4144537	<s> 4	-0.3761175
-0.59195876	4 m̀bəmbə	-0.3761175
-0.88612866	kídi m̀bəmbə	-0.26118502
-0.59195876	5 m̀bəmbə	-0.3761175
-0.88612866	amǒs m̀bəmbə	-0.26118502
-1.4684236	m̀bəmbə kídi	-0.29622167
-2.4144537	<s> 5	-0.3761175
-1.4684236	m̀bəmbə amǒs	-0.29622167
-2.4144537	<s> 7	-0.3761175
-0.59195876	7 yə	-0.3761175
-0.88612866	vɔɛ́ yə	-0.26118502
-0.59195876	9 yə	-0.3761175
-0.88612866	mvoɛ́ yə	-0.26118502
-1.3779439	yə o	0
-0.5858377	19 o	-0.3761175
-0.8741597	kaiza o	-0.26118502
-0.5858377	60 o	-0.3761175
-0.8741597	abán o	-0.26118502
-0.5858377	110 o	-0.3761175
-0.8741597	engongɔ́l o	-0.26118502
-0.080775395	o nə	0
-1.112597	e nə	0
-0.120325215	mə nə	0
-0.1958506	bə́ nə	0
-0.8205323	a nə	0
-0.63061297	é nə	0
-0.32524824	mayi nə	0
-1.0188438	bí nə	-0.29622167
-0.8663597	tádi nə	0
-1.9223881	nə vɔɛ́	-0.29622167
-2.4144537	<s> 9	-0.3761175
-1.4684236	yə ndâ	0
-0.59651065	ndâ bod	0
-0.59651065	bod dzoe	0
-0.59578544	dzoe e	0
-1.1753119	mvyě e	0
-1.9223881	nə mvoɛ́	-0.29622167
-2.4144537	<s> 10	-0.3761175
-0.57384855	10 wa	-0.3761175
-1.6013478	vé wa	-0.26118502
-1.0980186	dzé wa	-0.26118502
-1.0047762	ding wa	-0.26118502
-0.57384855	və wa	-0.29622167
-0.57384855	56 wa	-0.3761175
-0.85116786	zá wa	-0.26118502
-0.57384855	57 wa	-0.3761175
-0.57384855	58 wa	-0.3761175
-0.57384855	61 wa	-0.3761175
-0.57384855	və́ wa	0
-0.57384855	100 wa	-0.3761175
-0.85116786	abǒg wa	-0.26118502
-1.8699948	wa kə	0
-1.3942848	kə kə	0
-0.7017172	ma kə	-0.09691001
-2.149114	a kə	0
-2.0168753	nə vé	-0.26118502
-1.3942848	kə vé	-0.29622167
-1.3209956	anə vé	-0.26118502
-0.59195876	sɔ́ vé	-0.29622167
-2.4144537	<s> 11	-0.3761175
-0.59401846	11 dzé	-0.3761175
-0.89019287	bɔ dzé	-0.26118502
-0.89019287	dzə́ŋ dzé	-0.29622167
-1.470677	dzé wā	0
-0.59651065	wā bɔ	-0.29622167
-2.4144537	<s> 12	-0.3761175
-0.5818045	12 mə	-0.3761175
-1.0265784	mvɔɛ́ mə	-0.26118502
-0.5818045	18 mə	-0.3761175
-0.8663597	bitá mə	-0.26118502
-0.5818045	24 mə	-0.3761175
-0.8663597	abum mə	-0.26118502
-0.5818045	32 mə	-0.3761175
-0.8663597	báma mə	-0.26118502
-1.112597	ngə mə	0
-2.1649683	nə mvɔɛ́	-0.26118502
-2.4144537	<s> 13	-0.3761175
-0.59578544	13 bə́sə	-0.3761175
-0.8936946	mvɔɛ́! bə́sə	-0.26118502
-1.1389399	bə́sə bə́	0
-2.025021	a bə́	0
-0.5878685	74 bə́	-0.3761175
-0.8781128	bɔ̌bə̄dzǎŋ bə́	-0.26118502
-0.5878685	86 bə́	-0.3761175
-0.8781128	zěn bə́	-0.26118502
-1.9223881	nə mvɔɛ́!	-0.29622167
-2.4144537	<s> 14	-0.3761175
-1.1858644	nə ma	0
-1.0979828	wa ma	-0.26118502
-0.51668453	14 ma	-0.3761175
-0.7485929	ǎfub ma	-0.26118502
-0.51668453	15 ma	-0.3761175
-0.91355276	bídí ma	-0.26118502
-0.51668453	16 ma	-0.3761175
-0.7485929	ǹsom ma	-0.26118502
-0.51668453	22 ma	-0.3761175
-0.7485929	ekódé ma	-0.26118502
-0.51668453	23 ma	-0.3761175
-0.7485929	zie ma	-0.26118502
-0.51668453	lodo ma	-0.29622167
-0.51668453	44 ma	-0.3761175
-0.7485929	tsog ma	-0.26118502
-0.51668453	47 ma	-0.3761175
-0.51668453	48 ma	-0.3761175
-0.7485929	âfan ma	-0.26118502
-0.51668453	52 ma	-0.3761175
-0.7485929	êsyé ma	-0.26118502
-0.51668453	53 ma	-0.3761175
-0.7485929	yəbə ma	-0.26118502
-0.51668453	55 ma	-0.3761175
-0.7485929	kɔn ma	-0.26118502
-0.51668453	59 ma	-0.3761175
-0.7485929	fas ma	-0.26118502
-0.51668453	65 ma	-0.3761175
-0.7485929	óyɔ́ ma	-0.26118502
-0.51668453	76 ma	-0.3761175
-0.7485929	okídí ma	-0.26118502
-0.51668453	80 ma	-0.3761175
-0.7485929	afan ma	-0.26118502
-0.51668453	88 ma	-0.3761175
-0.7485929	ǹtsogán ma	-0.26118502
-0.51668453	91 ma	-0.3761175
-0.7485929	bílɔ́g ma	-0.26118502
-0.51668453	93 ma	-0.3761175
-0.7485929	biyé ma	-0.26118502
-0.51668453	97 ma	-0.3761175
-0.7485929	sɔ́m ma	-0.26118502
-0.51668453	104 ma	-0.3761175
-0.7485929	kədzɔág ma	-0.26118502
-0.51668453	109 ma	-0.3761175
-0.7485929	miǹtag ma	-0.26118502
-1.4262086	kə ǎfub	-0.29622167
-2.4144537	<s> 15	-0.3761175
-2.2863617	ma yám	0
-1.4501225	yám yám	-0.3761175
-0.59401846	94 yám	-0.3761175
-1.1870171	yám bídí	-0.29622167
-1.0666873	nyé bídí	-0.29622167
-2.4144537	<s> 16	-0.3761175
-1.6181455	kə á	0
-1.3916268	nyəb á	0
-0.58990884	lɛ̂ á	0
-0.58990884	lɔ́ŋ á	0
-0.58990884	dúgan á	0
-1.4273756	á ǹsom	-0.29622167
-2.4144537	<s> 17	-0.3761175
-0.52541053	17 a	-0.3761175
-0.76358443	mákíd a	-0.26118502
-0.52541053	25 a	-0.3761175
-0.76358443	ngâyiyǎbyé a	-0.26118502
-0.91159964	naná a	0
-0.52541053	nyɔ́ a	0
-0.52541053	ayǎb a	0
-0.85969436	bə́ngɔnɔ a	0
-0.52541053	zing a	0
-0.52541053	62 a	-0.3761175
-0.76358443	ebyandí a	-0.26118502
-0.52541053	63 a	-0.3761175
-0.76358443	fəg a	-0.26118502
-0.52541053	64 a	-0.3761175
-0.76358443	dzóbo a	-0.26118502
-0.52541053	67 a	-0.3761175
-0.76358443	wɔ́bɔ a	-0.26118502
-0.52541053	79 a	-0.3761175
-0.48918968	m̀bəŋ a	-0.26118502
-0.52541053	82 a	-0.3761175
-0.8847772	dáma a	-0.26118502
-0.52541053	84 a	-0.3761175
-0.52541053	87 a	-0.3761175
-0.76358443	m̀bíl a	-0.26118502
-0.52541053	92 a	-0.3761175
-0.52541053	96 a	-0.3761175
-0.76358443	mininagá a	-0.26118502
-0.52541053	98 a	-0.3761175
-0.76358443	dzié a	-0.26118502
-0.52541053	99 a	-0.3761175
-0.76358443	ayón a	-0.26118502
-0.52541053	105 a	-0.3761175
-0.76358443	âfúb a	-0.26118502
-0.52541053	106 a	-0.3761175
-0.76358443	fón a	-0.26118502
-0.52541053	107 a	-0.3761175
-0.76358443	dzǎl a	-0.26118502
-0.52541053	108 a	-0.3761175
-0.76358443	ewólo a	-0.26118502
-1.4273756	á mákíd	-0.29622167
-2.4144537	<s> 18	-0.3761175
-1.8316208	nə mod	0
-0.59195876	bəbə mod	0
-0.59195876	m̀fəfə́g mod	-0.29622167
-1.1574336	ǹnǒm mod	0
-1.2859403	mod bitá	-0.29622167
-2.4144537	<s> 19	-0.3761175
-1.9223881	nə kaiza	-0.29622167
-2.4144537	<s> 20	-0.3761175
-0.59578544	20 ó	-0.3761175
-0.8936946	nyɔ́l ó	-0.26118502
-1.1787665	ó bələ	0
-0.59651065	bələ kíg	0
-0.59651065	kíg mbəmbə	0
-0.59651065	mbəmbə nyɔ́l	-0.29622167
-2.4144537	<s> 21	-0.3761175
-0.59578544	21 biá	-0.3761175
-0.8936946	ǹgəngáŋ biá	-0.26118502
-1.1787665	biá yikə̄yén	0
-0.59651065	yikə̄yén ǹgəngáŋ	-0.29622167
-2.4144537	<s> 22	-0.3761175
-0.8177379	ma wóg	0
-1.1913958	wóg ekódé	-0.29622167
-2.4144537	<s> 23	-0.3761175
-1.1913958	wóg zie	-0.29622167
-2.4144537	<s> 24	-0.3761175
-1.9223881	nə abum	-0.29622167
-2.4144537	<s> 25	-0.3761175
-2.3459475	a ngâyiyǎbyé	-0.29622167
-2.4144537	<s> 26	-0.3761175
-1.0666873	mvɔɛ́ naná	-0.26118502
-0.59578544	26 naná	-0.3761175
-2.4144537	<s> 27	-0.3761175
-0.59401846	27 mǎnyǎŋ	-0.3761175
-0.89019287	ayilúg mǎnyǎŋ	-0.26118502
-1.3340375	ǹtól mǎnyǎŋ	0
-0.22235048	mǎnyǎŋ wama	0
-0.8951358	wama ayilúg	-0.29622167
-2.4144537	<s> 28	-0.3761175
-0.59578544	28 Fám	-0.3761175
-0.8936946	yáyónkíg Fám	-0.26118502
-1.1787665	Fám yáyónkíg	-0.29622167
-2.4144537	<s> 29	-0.3761175
-0.5858377	29 é	-0.3761175
-1.5993763	nyəb é	-0.26118502
-0.5858377	30 é	-0.3761175
-0.5858377	byálí é	0
-0.5858377	45 é	-0.3761175
-0.8741597	dzama é	-0.26118502
-0.5858377	dzáma é	0
-1.7578943	é miníngá	0
-0.59651065	miníngá nyɔ́	0
-1.9961393	a nyəb	-0.29622167
-0.88612866	ya nyəb	-0.29622167
-0.88612866	yá nyəb	-0.29622167
-0.59195876	daŋ nyəb	0
-2.4144537	<s> 30	-0.3761175
-1.7578943	é fám	0
-0.59578544	fám nyí	0
-1.0666873	kídí nyí	-0.29622167
-1.0666873	nyí ya	0
-1.1753119	kúb ya	0
-2.4144537	<s> 31	-0.3761175
-1.8704776	nə ǹtól	0
-2.1023245	ma ǹtól	-0.26118502
-0.59401846	31 ǹtól	-0.3761175
-0.8951358	wama ayǎb	0
-2.124702	a lodo	0
-2.4144537	<s> 32	-0.3761175
-1.0614822	nyí mɔ́n	-0.26118502
-1.0590978	ǹtól mɔ́n	0
-0.59401846	40 mɔ́n	-0.3761175
-1.067643	mɔ́n bəbonde	0
-0.59651065	bəbonde báma	-0.29622167
-2.4144537	<s> 33	-0.3761175
-0.59578544	33 bəfám	-0.3761175
-1.0666873	ásí bəfám	-0.26118502
-1.2738836	mod yǎ	0
-1.1669844	bəfám yǎ	0
-1.1669844	bəyə́bə yǎ	0
-1.3502741	yǎ dzāl	-0.12333002
-1.0614822	dzāl bá	0
-0.59401846	43 bá	-0.3761175
-0.89019287	fulan bá	-0.26118502
-1.067643	bá lɛ̂	0
-1.4224862	á élé	0
-1.2824044	mod élé	0
-1.1787665	élé ásí	-0.26118502
-2.4144537	<s> 34	-0.3761175
-0.59578544	34 byakə	-0.3761175
-0.8936946	fəfə byakə	-0.26118502
-1.1787665	byakə bəbə	0
-1.067643	yǎ fəfə	-0.29622167
-2.4144537	<s> 35	-0.3761175
-0.59578544	35 kúb	-0.3761175
-1.0666873	kídí kúb	-0.26118502
-0.8951358	ya lɔ́ŋ	0
-1.4224862	á kídí	-0.29622167
-1.4786475	é kídí	0
-2.4144537	<s> 36	-0.3761175
-0.59578544	36 myál	-0.3761175
-0.8936946	alú myál	-0.26118502
-1.1787665	myál wákuí	0
-0.59651065	wákuí ai	0
-0.59651065	ai alú	-0.29622167
-2.4144537	<s> 37	-0.3761175
-1.2824044	mod Ongɔlɔ	-0.26118502
-0.59578544	37 Ongɔlɔ	-0.3761175
-1.1669844	Ongɔlɔ anə	0
-1.1669844	esɔ́á anə	0
-1.1669844	nyɔá anə	0
-1.067643	anə m̀fəfə́g	0
-2.4144537	<s> 38	-0.3761175
-0.59401846	38 bə́ngɔnɔ	-0.3761175
-0.89019287	mə́ndím bə́ngɔnɔ	-0.26118502
-1.1669844	esyâ bə́ngɔnɔ	0
-1.3502741	bə́ngɔnɔ anyú	0
-0.59651065	anyú mə́ndím	-0.29622167
-2.4144537	<s> 39	-0.3761175
-0.59578544	39 esyâ	-0.3761175
-0.8936946	məyɔg esyâ	-0.26118502
-2.124702	a nyǔ	0
-0.59651065	nyǔ məyɔg	-0.29622167
-2.4144537	<s> 40	-0.3761175
-1.3502741	mɔ́n zing	0
-2.124702	a byálí	0
-2.4144537	<s> 41	-0.3761175
-0.5878685	41 mayi	-0.3761175
-0.8781128	madí mayi	-0.26118502
-0.5878685	54 mayi	-0.3761175
-1.1532884	dí mayi	-0.26118502
-0.5878685	95 mayi	-0.3761175
-0.8781128	mayəm mayi	-0.26118502
-1.6485331	mayi nə̄	0
-0.59651065	nə̄ madí	-0.29622167
-2.4144537	<s> 42	-0.3761175
-0.59578544	42 mɔ́ngɔ́	-0.3761175
-0.8936946	məwóg mɔ́ngɔ́	-0.26118502
-1.1787665	mɔ́ngɔ́ məwóg	-0.29622167
-2.4144537	<s> 43	-0.3761175
-1.3502741	bá fulan	-0.29622167
-2.4144537	<s> 44	-0.3761175
-2.3980966	ma bad	0
-0.59651065	bad tsog	-0.29622167
-2.4144537	<s> 45	-0.3761175
-1.9223881	nə mvóé	0
-0.59651065	mvóé dzama	-0.29622167
-2.4144537	<s> 46	-0.3761175
-0.59578544	46 mim̀bú	-0.3761175
-0.8936946	myálod mim̀bú	-0.26118502
-1.1787665	mim̀bú myálod	-0.29622167
-2.4144537	<s> 47	-0.3761175
-1.9667588	wa ding	-0.29622167
-2.3625848	ma ding	0
-1.0688355	ding və	0
-2.4144537	<s> 48	-0.3761175
-2.3980966	ma yón	0
-0.59651065	yón âfan	-0.29622167
-2.4144537	<s> 50	-0.3761175
-0.59578544	50 evúndi	-0.3761175
-0.8936946	lod evúndi	-0.26118502
-1.1753119	evúndi yá	0
-1.1753119	enyiŋ yá	0
-0.8951358	yá lod	-0.29622167
-2.4144537	<s> 51	-0.3761175
-0.59578544	51 ǹnə́m	-0.3761175
-1.0666873	nyé ǹnə́m	-0.26118502
-1.1787665	ǹnə́m wá	0
-0.59651065	wá sán	0
-0.59578544	sán nyé	-0.29622167
-1.1753119	vááni nyé	0
-2.4144537	<s> 52	-0.3761175
-1.4262086	kə êsyé	-0.29622167
-2.4144537	<s> 53	-0.3761175
-2.3980966	ma yəbə	-0.29622167
-2.4144537	<s> 54	-0.3761175
-2.1506803	ma dí	-0.29622167
-1.0666873	dáma dí	-0.29622167
-2.4144537	<s> 55	-0.3761175
-2.3980966	ma kɔn	-0.29622167
-2.4144537	<s> 56	-0.3761175
-1.9876897	wa nyiŋ	0
-0.59651065	nyiŋ âbə	0
-0.59651065	âbə zá	-0.29622167
-2.4144537	<s> 57	-0.3761175
-1.9667588	wa dzə́ŋ	0
-2.3625848	ma dzə́ŋ	0
-2.4144537	<s> 58	-0.3761175
-1.9876897	wa sɔ́	0
-2.4144537	<s> 59	-0.3761175
-2.3980966	ma fas	-0.29622167
-2.4144537	<s> 60	-0.3761175
-1.9223881	nə abán	-0.29622167
-2.4144537	<s> 61	-0.3761175
-2.4144537	<s> 62	-0.3761175
-1.9223881	nə ebyandí	-0.29622167
-2.4144537	<s> 63	-0.3761175
-1.9223881	nə fəg	-0.29622167
-2.4144537	<s> 64	-0.3761175
-2.3459475	a bə̌bə	0
-0.59651065	bə̌bə ǹló	0
-0.59651065	ǹló dzóbo	-0.29622167
-2.4144537	<s> 65	-0.3761175
-1.4262086	kə óyɔ́	-0.29622167
-2.4144537	<s> 66	-0.3761175
-1.1870171	bídí vááni	-0.26118502
-0.59578544	66 vááni	-0.3761175
-2.4144537	<s> 67	-0.3761175
-2.3459475	a wɔ́bɔ	-0.29622167
-2.4144537	<s> 68	-0.3761175
-0.59578544	68 kələ́	-0.3761175
-0.8936946	ndóan kələ́	-0.26118502
-1.1787665	kələ́ fəb	0
-0.59651065	fəb ndóan	-0.29622167
-2.4144537	<s> 69	-0.3761175
-1.5740674	vé mvyě	-0.26118502
-0.59578544	69 mvyě	-0.3761175
-2.4144537	<s> 70	-0.3761175
-1.5740674	vé etǔn	-0.26118502
-0.59578544	70 etǔn	-0.3761175
-1.4224862	á ndá	0
-1.1753119	etǔn ndá	0
-0.8951358	ndá dzáma	0
-2.4144537	<s> 71	-0.3761175
-1.5740674	vé esɔ́á	-0.26118502
-0.59578544	71 esɔ́á	-0.3761175
-2.4144537	<s> 73	-0.3761175
-1.5740674	vé nyɔá	-0.26118502
-0.59578544	73 nyɔá	-0.3761175
-2.4144537	<s> 74	-0.3761175
-1.9223881	nə bɔ̌bə̄dzǎŋ	-0.29622167
-2.4144537	<s> 75	-0.3761175
-0.59578544	75 ńnyə	-0.3761175
-0.8936946	ńtól ńnyə	-0.26118502
-1.1787665	ńnyə anə́	0
-0.59651065	anə́ ńtól	-0.29622167
-2.4144537	<s> 76	-0.3761175
-1.4273756	á dulu	0
-0.59651065	dulu okídí	-0.29622167
-2.4144537	<s> 77	-0.3761175
-1.9066635	nə bikai	-0.26118502
-0.59578544	77 bikai	-0.3761175
-1.1669844	bikai bí	0
-0.59401846	101 bí	-0.3761175
-0.89019287	abuí bí	-0.26118502
-2.4144537	<s> 78	-0.3761175
-1.4251653	nyəb enyiŋ	-0.26118502
-0.59578544	78 enyiŋ	-0.3761175
-2.4144537	<s> 79	-0.3761175
-2.3459475	a dzə́m	0
-0.59401846	dzə́m m̀bəŋ	-0.29622167
-0.59401846	bɔ́d m̀bəŋ	-0.29622167
-0.59401846	bía m̀bəŋ	-0.29622167
-2.4144537	<s> 80	-0.3761175
-2.3980966	ma yəm	0
-0.59651065	yəm afan	-0.29622167
-2.4144537	<s> 82	-0.3761175
-2.3459475	a bɔ́d	0
-2.4144537	<s> 83	-0.3761175
-1.1870171	dí akúma	-0.26118502
-0.59578544	83 akúma	-0.3761175
-1.1753119	akúma dáma	0
-0.59578544	dzwé dáma	-0.29622167
-2.4144537	<s> 84	-0.3761175
-2.3459475	a bɔ́	0
-0.59651065	bɔ́ bía	0
-2.4144537	<s> 85	-0.3761175
-1.0666873	dzāl bəyə́bə	-0.26118502
-0.59578544	85 bəyə́bə	-0.3761175
-2.4144537	<s> 86	-0.3761175
-1.9223881	nə ā	0
-0.59651065	ā zěn	-0.29622167
-2.4144537	<s> 87	-0.3761175
-1.1577079	a tádi	0
-0.8951358	tádi nə̌	0
-0.59651065	nə̌ atyé	0
-0.59651065	atyé m̀bíl	-0.29622167
-2.4144537	<s> 88	-0.3761175
-2.3980966	ma və́	0
-1.7334187	wa ǹtsogán	-0.29622167
-2.4144537	<s> 89	-0.3761175
-0.59578544	89 dzam	-0.3761175
-0.8936946	éngóngɔ́l dzam	-0.26118502
-1.1787665	dzam éngóngɔ́l	-0.29622167
-2.4144537	<s> 90	-0.3761175
-0.59578544	90 mə̌	-0.3761175
-0.8936946	sende mə̌	-0.26118502
-1.1787665	mə̌ sende	-0.29622167
-2.4144537	<s> 91	-0.3761175
-0.8951358	dzə́ŋ bílɔ́g	-0.29622167
-2.4144537	<s> 92	-0.3761175
-2.3459475	a bələ̄	0
-0.59651065	bələ̄ dzwé	0
-2.4144537	<s> 93	-0.3761175
-2.3980966	ma kus	0
-0.59651065	kus biyé	-0.29622167
-2.4144537	<s> 94	-0.3761175
-2.4144537	<s> 95	-0.3761175
-1.9223881	nə mayəm	-0.29622167
-2.4144537	<s> 96	-0.3761175
-2.3459475	a yen	0
-0.59651065	yen mininagá	-0.29622167
-2.4144537	<s> 97	-0.3761175
-1.1913958	wóg sɔ́m	-0.29622167
-2.4144537	<s> 98	-0.3761175
-2.3459475	a dúgan	0
-0.8951358	ndá dzié	-0.29622167
-2.4144537	<s> 99	-0.3761175
-1.9223881	nə ayón	-0.29622167
-2.4144537	<s> 100	-0.3761175
-1.9876897	wa dzáɛ	0
-0.59651065	dzáɛ abǒg	-0.29622167
-2.4144537	<s> 101	-0.3761175
-1.3502741	bí yə̄gé	0
-0.59651065	yə̄gé abuí	-0.29622167
-2.4144537	<s> 102	-0.3761175
-0.59578544	102 miǹkúd	-0.3761175
-0.8936946	myávín miǹkúd	-0.26118502
-1.1787665	miǹkúd myávín	-0.29622167
-2.4144537	<s> 103	-0.3761175
-0.59578544	103 ngə	-0.3761175
-0.8936946	yəmə ngə	-0.26118502
-1.5468887	mə yəmə	-0.29622167
-2.4144537	<s> 104	-0.3761175
-2.3980966	ma kədzɔág	-0.29622167
-2.4144537	<s> 105	-0.3761175
-1.3707975	bə́ âfúb	-0.29622167
-2.4144537	<s> 106	-0.3761175
-2.3459475	a búg	0
-0.59651065	búg fón	-0.29622167
-2.4144537	<s> 107	-0.3761175
-2.3459475	a daŋ	0
-1.4273756	á dzǎl	-0.29622167
-2.4144537	<s> 108	-0.3761175
-1.9223881	nə ewólo	-0.29622167
-2.4144537	<s> 109	-0.3761175
-1.1913958	wóg miǹtag	-0.29622167
-2.4144537	<s> 110	-0.3761175
-1.9223881	nə engongɔ́l	-0.29622167
-2.4144537	<s> 111	-0.3761175
-1.0666873	ásí ǹnǒm	-0.26118502
-0.59578544	111 ǹnǒm	-0.3761175

\3-grams:
-0.50656986	m̀bəmbə kídi </s>
-0.50656986	m̀bəmbə amǒs </s>
-0.59275603	bí nə </s>
-0.50656986	nə vɔɛ́ </s>
-0.50656986	nə mvoɛ́ </s>
-0.5730517	və wa </s>
-0.45351213	nə vé </s>
-0.4215554	kə vé </s>
-0.45351213	anə vé </s>
-0.4215554	sɔ́ vé </s>
-0.54287505	dzə́ŋ dzé </s>
-0.50656986	wā bɔ </s>
-0.591851	nə mvɔɛ́ </s>
-0.50656986	nə mvɔɛ́! </s>
-0.6198011	lodo ma </s>
-0.50656986	kə ǎfub </s>
-0.43489042	yám yám </s>
-0.56706595	yám bídí </s>
-0.56706595	nyé bídí </s>
-0.50656986	á ǹsom </s>
-0.50656986	á mákíd </s>
-0.5633793	m̀fəfə́g mod </s>
-0.50656986	mod bitá </s>
-0.50656986	nə kaiza </s>
-0.50656986	mbəmbə nyɔ́l </s>
-0.50656986	yikə̄yén ǹgəngáŋ </s>
-0.50656986	wóg ekódé </s>
-0.50656986	wóg zie </s>
-0.50656986	nə abum </s>
-0.50656986	a ngâyiyǎbyé </s>
-0.50656986	wama ayilúg </s>
-0.50656986	Fám yáyónkíg </s>
-0.43113607	a nyəb </s>
-0.43113607	ya nyəb </s>
-0.43113607	yá nyəb </s>
-0.5372094	kídí nyí </s>
-0.50656986	bəbonde báma </s>
-0.6176319	yǎ dzāl </s>
-0.591851	élé ásí </s>
-0.50656986	yǎ fəfə </s>
-0.5372094	á kídí </s>
-0.50656986	ai alú </s>
-0.50656986	anyú mə́ndím </s>
-0.50656986	nyǔ məyɔg </s>
-0.50656986	nə̄ madí </s>
-0.50656986	mɔ́ngɔ́ məwóg </s>
-0.50656986	bá fulan </s>
-0.50656986	bad tsog </s>
-0.50656986	mvóé dzama </s>
-0.50656986	mim̀bú myálod </s>
-0.5372094	wa ding </s>
-0.50656986	yón âfan </s>
-0.50656986	yá lod </s>
-0.5372094	sán nyé </s>
-0.50656986	kə êsyé </s>
-0.50656986	ma yəbə </s>
-0.56706595	ma dí </s>
-0.56706595	dáma dí </s>
-0.50656986	ma kɔn </s>
-0.50656986	âbə zá </s>
-0.50656986	ma fas </s>
-0.50656986	nə abán </s>
-0.50656986	nə ebyandí </s>
-0.50656986	nə fəg </s>
-0.50656986	ǹló dzóbo </s>
-0.50656986	kə óyɔ́ </s>
-0.50656986	a wɔ́bɔ </s>
-0.50656986	fəb ndóan </s>
-0.50656986	nə bɔ̌bə̄dzǎŋ </s>
-0.50656986	anə́ ńtól </s>
-0.50656986	dulu okídí </s>
-0.42738193	dzə́m m̀bəŋ </s>
-0.42738193	bɔ́d m̀bəŋ </s>
-0.42738193	bía m̀bəŋ </s>
-0.50656986	yəm afan </s>
-0.5372094	dzwé dáma </s>
-0.50656986	ā zěn </s>
-0.50656986	atyé m̀bíl </s>
-0.50656986	wa ǹtsogán </s>
-0.50656986	dzam éngóngɔ́l </s>
-0.50656986	mə̌ sende </s>
-0.50656986	dzə́ŋ bílɔ́g </s>
-0.50656986	kus biyé </s>
-0.50656986	nə mayəm </s>
-0.50656986	yen mininagá </s>
-0.50656986	wóg sɔ́m </s>
-0.50656986	ndá dzié </s>
-0.50656986	nə ayón </s>
-0.50656986	dzáɛ abǒg </s>
-0.50656986	yə̄gé abuí </s>
-0.50656986	miǹkúd myávín </s>
-0.50656986	mə yəmə </s>
-0.50656986	ma kədzɔág </s>
-0.50656986	bə́ âfúb </s>
-0.50656986	búg fón </s>
-0.50656986	á dzǎl </s>
-0.50656986	nə ewólo </s>
-0.50656986	wóg miǹtag </s>
-0.50656986	nə engongɔ́l </s>
-0.1630339	<s> 4 m̀bəmbə
-0.43531367	m̀bəmbə kídi m̀bəmbə
-0.1630339	<s> 5 m̀bəmbə
-0.43531367	m̀bəmbə amǒs m̀bəmbə
-0.22643937	4 m̀bəmbə kídi
-0.32735342	kídi m̀bəmbə kídi
-0.22643937	5 m̀bəmbə amǒs
-0.32735342	amǒs m̀bəmbə amǒs
-0.1630339	<s> 7 yə
-0.43531367	nə vɔɛ́ yə
-0.1630339	<s> 9 yə
-0.43531367	nə mvoɛ́ yə
-0.22402243	7 yə o
-0.32338756	vɔɛ́ yə o
-0.16206926	<s> 19 o
-0.4331463	nə kaiza o
-0.16206926	<s> 60 o
-0.4331463	nə abán o
-0.16206926	<s> 110 o
-0.4331463	nə engongɔ́l o
-0.080775395	yə o nə
-0.03216493	19 o nə
-0.042399358	kaiza o nə
-0.03216493	60 o nə
-0.042399358	abán o nə
-0.03216493	110 o nə
-0.042399358	engongɔ́l o nə
-1.112597	dzoe e nə
-1.112597	mvyě e nə
-0.046619326	12 mə nə
-0.06179118	mvɔɛ́ mə nə
-0.046619326	18 mə nə
-0.06179118	bitá mə nə
-0.046619326	24 mə nə
-0.06179118	abum mə nə
-0.046619326	32 mə nə
-0.06179118	báma mə nə
-0.1958506	bə́sə bə́ nə
-0.07195064	74 bə́ nə
-0.096330486	bɔ̌bə̄dzǎŋ bə́ nə
-0.07195064	86 bə́ nə
-0.096330486	zěn bə́ nə
-0.8205323	naná a nə
-0.19180827	62 a nə
-0.2718048	ebyandí a nə
-0.19180827	63 a nə
-0.2718048	fəg a nə
-0.19180827	108 a nə
-0.2718048	ewólo a nə
-0.16886678	45 é nə
-0.23638536	dzama é nə
-0.63061297	dzáma é nə
-0.10886026	54 mayi nə
-0.14805965	dí mayi nə
-0.10886026	95 mayi nə
-0.14805965	mayəm mayi nə
-1.0188438	bikai bí nə
-0.8663597	a tádi nə
-1.9223881	o nə vɔɛ́
-0.22643937	9 yə ndâ
-0.32735342	mvoɛ́ yə ndâ
-0.59651065	yə ndâ bod
-0.59651065	ndâ bod dzoe
-0.59578544	bod dzoe e
-0.3110835	vé mvyě e
-0.21646917	69 mvyě e
-1.9223881	e nə mvoɛ́
-0.1601464	<s> 10 wa
-0.50311977	kə vé wa
-0.50311977	sɔ́ vé wa
-0.46642292	dzə́ŋ dzé wa
-0.4543119	wa ding wa
-0.57384855	ding və wa
-0.1601464	<s> 56 wa
-0.4288437	âbə zá wa
-0.1601464	<s> 57 wa
-0.1601464	<s> 58 wa
-0.1601464	<s> 61 wa
-0.57384855	ma və́ wa
-0.1601464	<s> 100 wa
-0.4288437	dzáɛ abǒg wa
-0.23279871	10 wa kə
-0.6319526	vé wa kə
-1.4911948	ma kə kə
-0.17850004	14 ma kə
-0.2511346	ǎfub ma kə
-0.17850004	16 ma kə
-0.2511346	ǹsom ma kə
-0.17850004	52 ma kə
-0.2511346	êsyé ma kə
-0.17850004	65 ma kə
-0.2511346	óyɔ́ ma kə
-0.17850004	76 ma kə
-0.2511346	okídí ma kə
-0.23480026	17 a kə
-0.34118342	mákíd a kə
-2.0168753	e nə vé
-2.0168753	é nə vé
-1.3942848	wa kə vé
-1.3209956	esɔ́á anə vé
-1.3209956	nyɔá anə vé
-0.59195876	wa sɔ́ vé
-0.1633559	<s> 11 dzé
-0.43603855	wā bɔ dzé
-0.89019287	wa dzə́ŋ dzé
-0.22649354	11 dzé wā
-0.3274424	bɔ dzé wā
-0.59651065	dzé wā bɔ
-0.1614274	<s> 12 mə
-0.69421214	nə mvɔɛ́ mə
-0.1614274	<s> 18 mə
-0.43170738	mod bitá mə
-0.1614274	<s> 24 mə
-0.43170738	nə abum mə
-0.1614274	<s> 32 mə
-0.43170738	bəbonde báma mə
-0.2133604	103 ngə mə
-0.30605805	yəmə ngə mə
-2.1649683	mə nə mvɔɛ́
-2.1649683	a nə mvɔɛ́
-0.16363117	<s> 13 bə́sə
-0.43665868	nə mvɔɛ́! bə́sə
-0.21471833	13 bə́sə bə́
-0.30825046	mvɔɛ́! bə́sə bə́
-0.234065	105 a bə́
-0.3399601	âfúb a bə́
-0.16239055	<s> 74 bə́
-0.43386757	nə bɔ̌bə̄dzǎŋ bə́
-0.16239055	<s> 86 bə́
-0.43386757	ā zěn bə́
-1.9223881	bə́ nə mvɔɛ́!
-1.1858644	mayi nə ma
-0.46641868	və wa ma
-0.150345	<s> 14 ma
-0.40726823	kə ǎfub ma
-0.150345	<s> 15 ma
-0.4400983	yám bídí ma
-0.150345	<s> 16 ma
-0.40726823	á ǹsom ma
-0.150345	<s> 22 ma
-0.40726823	wóg ekódé ma
-0.150345	<s> 23 ma
-0.40726823	wóg zie ma
-0.51668453	a lodo ma
-0.150345	<s> 44 ma
-0.40726823	bad tsog ma
-0.150345	<s> 47 ma
-0.150345	<s> 48 ma
-0.40726823	yón âfan ma
-0.150345	<s> 52 ma
-0.40726823	kə êsyé ma
-0.150345	<s> 53 ma
-0.40726823	ma yəbə ma
-0.150345	<s> 55 ma
-0.40726823	ma kɔn ma
-0.150345	<s> 59 ma
-0.40726823	ma fas ma
-0.150345	<s> 65 ma
-0.40726823	kə óyɔ́ ma
-0.150345	<s> 76 ma
-0.40726823	dulu okídí ma
-0.150345	<s> 80 ma
-0.40726823	yəm afan ma
-0.150345	<s> 88 ma
-0.40726823	wa ǹtsogán ma
-0.150345	<s> 91 ma
-0.40726823	dzə́ŋ bílɔ́g ma
-0.150345	<s> 93 ma
-0.40726823	kus biyé ma
-0.150345	<s> 97 ma
-0.40726823	wóg sɔ́m ma
-0.150345	<s> 104 ma
-0.40726823	ma kədzɔág ma
-0.150345	<s> 109 ma
-0.40726823	wóg miǹtag ma
-1.5231186	ma kə ǎfub
-0.23540358	15 ma yám
-0.3421882	bídí ma yám
-0.51625115	yám yám yám
-0.22598925	94 yám yám
-0.1633559	<s> 94 yám
-1.1870171	ma yám bídí
-1.0666873	vááni nyé bídí
-0.65901524	ma kə á
-1.6181455	a kə á
-1.3916268	daŋ nyəb á
-0.58990884	bá lɛ̂ á
-0.58990884	ya lɔ́ŋ á
-0.58990884	a dúgan á
-1.4273756	kə á ǹsom
-0.15191096	<s> 17 a
-0.41067648	á mákíd a
-0.15191096	<s> 25 a
-0.41067648	a ngâyiyǎbyé a
-0.28472158	mvɔɛ́ naná a
-0.20000947	26 naná a
-0.52541053	miníngá nyɔ́ a
-0.52541053	wama ayǎb a
-0.85969436	esyâ bə́ngɔnɔ a
-0.52541053	mɔ́n zing a
-0.15191096	<s> 62 a
-0.41067648	nə ebyandí a
-0.15191096	<s> 63 a
-0.41067648	nə fəg a
-0.15191096	<s> 64 a
-0.41067648	ǹló dzóbo a
-0.15191096	<s> 67 a
-0.41067648	a wɔ́bɔ a
-0.15191096	<s> 79 a
-0.3323528	dzə́m m̀bəŋ a
-0.3323528	bɔ́d m̀bəŋ a
-0.3323528	bía m̀bəŋ a
-0.15191096	<s> 82 a
-0.4350714	dzwé dáma a
-0.15191096	<s> 84 a
-0.15191096	<s> 87 a
-0.41067648	atyé m̀bíl a
-0.15191096	<s> 92 a
-0.15191096	<s> 96 a
-0.41067648	yen mininagá a
-0.15191096	<s> 98 a
-0.41067648	ndá dzié a
-0.15191096	<s> 99 a
-0.41067648	nə ayón a
-0.15191096	<s> 105 a
-0.41067648	bə́ âfúb a
-0.15191096	<s> 106 a
-0.41067648	búg fón a
-0.15191096	<s> 107 a
-0.41067648	á dzǎl a
-0.15191096	<s> 108 a
-0.41067648	nə ewólo a
-1.4273756	kə á mákíd
-1.8316208	mə nə mod
-0.59195876	byakə bəbə mod
-0.59195876	anə m̀fəfə́g mod
-0.30971828	ásí ǹnǒm mod
-0.21562599	111 ǹnǒm mod
-1.2859403	nə mod bitá
-1.9223881	o nə kaiza
-0.16363117	<s> 20 ó
-0.43665868	mbəmbə nyɔ́l ó
-0.21662833	20 ó bələ
-0.31134135	nyɔ́l ó bələ
-0.59651065	ó bələ kíg
-0.59651065	bələ kíg mbəmbə
-0.59651065	kíg mbəmbə nyɔ́l
-0.16363117	<s> 21 biá
-0.43665868	yikə̄yén ǹgəngáŋ biá
-0.21662833	21 biá yikə̄yén
-0.31134135	ǹgəngáŋ biá yikə̄yén
-0.59651065	biá yikə̄yén ǹgəngáŋ
-0.19153112	22 ma wóg
-0.27137074	ekódé ma wóg
-0.19153112	23 ma wóg
-0.27137074	zie ma wóg
-0.19153112	97 ma wóg
-0.27137074	sɔ́m ma wóg
-0.19153112	109 ma wóg
-0.27137074	miǹtag ma wóg
-1.1913958	ma wóg ekódé
-1.1913958	ma wóg zie
-1.9223881	mə nə abum
-0.23561192	25 a ngâyiyǎbyé
-0.34253535	ngâyiyǎbyé a ngâyiyǎbyé
-0.7040913	nə mvɔɛ́ naná
-0.16363117	<s> 26 naná
-0.1633559	<s> 27 mǎnyǎŋ
-0.43603855	wama ayilúg mǎnyǎŋ
-0.3211601	ma ǹtól mǎnyǎŋ
-0.22266114	31 ǹtól mǎnyǎŋ
-0.08015683	27 mǎnyǎŋ wama
-0.107681096	ayilúg mǎnyǎŋ wama
-0.22235048	ǹtól mǎnyǎŋ wama
-0.8951358	mǎnyǎŋ wama ayilúg
-0.16363117	<s> 28 Fám
-0.43665868	Fám yáyónkíg Fám
-0.21662833	28 Fám yáyónkíg
-0.31134135	yáyónkíg Fám yáyónkíg
-0.16206926	<s> 29 é
-0.5030401	a nyəb é
-0.5030401	ya nyəb é
-0.16206926	<s> 30 é
-0.5858377	a byálí é
-0.16206926	<s> 45 é
-0.4331463	mvóé dzama é
-0.5858377	ndá dzáma é
-0.23156011	29 é miníngá
-0.6279197	nyəb é miníngá
-0.59651065	é miníngá nyɔ́
-1.9961393	nyɔ́ a nyəb
-0.88612866	nyí ya nyəb
-0.88612866	enyiŋ yá nyəb
-0.59195876	a daŋ nyəb
-0.6279197	nyəb é fám
-0.23156011	30 é fám
-0.59578544	é fám nyí
-1.0666873	é kídí nyí
-1.0666873	fám nyí ya
-0.21646917	35 kúb ya
-0.3110835	kídí kúb ya
-1.8704776	mə nə ǹtól
-0.5152749	lodo ma ǹtól
-0.1633559	<s> 31 ǹtól
-0.8951358	mǎnyǎŋ wama ayǎb
-2.124702	ayǎb a lodo
-0.46194515	kídí nyí mɔ́n
-1.0590978	nə ǹtól mɔ́n
-0.1633559	<s> 40 mɔ́n
-1.067643	ǹtól mɔ́n bəbonde
-0.59651065	mɔ́n bəbonde báma
-0.16363117	<s> 33 bəfám
-0.7040913	élé ásí bəfám
-1.2738836	bəbə mod yǎ
-0.21608052	33 bəfám yǎ
-0.31045407	ásí bəfám yǎ
-0.31045407	dzāl bəyə́bə yǎ
-0.21608052	85 bəyə́bə yǎ
-1.3502741	bəfám yǎ dzāl
-1.3502741	bəyə́bə yǎ dzāl
-1.1848123	yǎ dzāl bá
-0.1633559	<s> 43 bá
-0.43603855	bá fulan bá
-1.067643	dzāl bá lɛ̂
-1.4224862	lɛ̂ á élé
-1.2824044	ǹnǒm mod élé
-1.1787665	á élé ásí
-1.1787665	mod élé ásí
-0.16363117	<s> 34 byakə
-0.43665868	yǎ fəfə byakə
-0.21662833	34 byakə bəbə
-0.31134135	fəfə byakə bəbə
-1.067643	mod yǎ fəfə
-0.16363117	<s> 35 kúb
-0.4626034	á kídí kúb
-0.8951358	kúb ya lɔ́ŋ
-1.4224862	lɔ́ŋ á kídí
-1.4786475	byálí é kídí
-0.16363117	<s> 36 myál
-0.43665868	ai alú myál
-0.21662833	36 myál wákuí
-0.31134135	alú myál wákuí
-0.59651065	myál wákuí ai
-0.59651065	wákuí ai alú
-0.4845363	m̀fəfə́g mod Ongɔlɔ
-0.16363117	<s> 37 Ongɔlɔ
-0.31045407	mod Ongɔlɔ anə
-0.21608052	37 Ongɔlɔ anə
-0.31045407	vé esɔ́á anə
-0.21608052	71 esɔ́á anə
-0.31045407	vé nyɔá anə
-0.21608052	73 nyɔá anə
-1.067643	Ongɔlɔ anə m̀fəfə́g
-0.1633559	<s> 38 bə́ngɔnɔ
-0.43603855	anyú mə́ndím bə́ngɔnɔ
-0.21608052	39 esyâ bə́ngɔnɔ
-0.31045407	məyɔg esyâ bə́ngɔnɔ
-0.22318015	38 bə́ngɔnɔ anyú
-0.32200882	mə́ndím bə́ngɔnɔ anyú
-0.59651065	bə́ngɔnɔ anyú mə́ndím
-0.16363117	<s> 39 esyâ
-0.43665868	nyǔ məyɔg esyâ
-2.124702	bə́ngɔnɔ a nyǔ
-0.59651065	a nyǔ məyɔg
-0.32200882	nyí mɔ́n zing
-0.22318015	40 mɔ́n zing
-2.124702	zing a byálí
-0.16239055	<s> 41 mayi
-0.43386757	nə̄ madí mayi
-0.16239055	<s> 54 mayi
-0.4725947	ma dí mayi
-0.16239055	<s> 95 mayi
-0.43386757	nə mayəm mayi
-0.23000607	41 mayi nə̄
-0.33323196	madí mayi nə̄
-0.59651065	mayi nə̄ madí
-0.16363117	<s> 42 mɔ́ngɔ́
-0.43665868	mɔ́ngɔ́ məwóg mɔ́ngɔ́
-0.21662833	42 mɔ́ngɔ́ məwóg
-0.31134135	məwóg mɔ́ngɔ́ məwóg
-0.22318015	43 bá fulan
-0.32200882	fulan bá fulan
-0.23577225	44 ma bad
-0.34280264	tsog ma bad
-0.59651065	ma bad tsog
-1.9223881	é nə mvóé
-0.59651065	nə mvóé dzama
-0.16363117	<s> 46 mim̀bú
-0.43665868	mim̀bú myálod mim̀bú
-0.21662833	46 mim̀bú myálod
-0.31134135	myálod mim̀bú myálod
-0.339255	ding wa ding
-0.2336408	61 wa ding
-0.34262413	wa ma ding
-0.23566519	47 ma ding
-1.0688355	ma ding və
-0.23577225	48 ma yón
-0.34280264	âfan ma yón
-0.59651065	ma yón âfan
-0.16363117	<s> 50 evúndi
-0.43665868	yá lod evúndi
-0.21646917	50 evúndi yá
-0.3110835	lod evúndi yá
-0.3110835	nyəb enyiŋ yá
-0.21646917	78 enyiŋ yá
-0.8951358	evúndi yá lod
-0.16363117	<s> 51 ǹnə́m
-0.4626034	sán nyé ǹnə́m
-0.21662833	51 ǹnə́m wá
-0.31134135	nyé ǹnə́m wá
-0.59651065	ǹnə́m wá sán
-0.59578544	wá sán nyé
-0.3110835	bídí vááni nyé
-0.21646917	66 vááni nyé
-1.5231186	ma kə êsyé
-0.23577225	53 ma yəbə
-0.34280264	yəbə ma yəbə
-2.1506803	nə ma dí
-1.0666873	akúma dáma dí
-0.23577225	55 ma kɔn
-0.34280264	kɔn ma kɔn
-0.23379971	56 wa nyiŋ
-0.33951914	zá wa nyiŋ
-0.59651065	wa nyiŋ âbə
-0.59651065	nyiŋ âbə zá
-0.339255	dzé wa dzə́ŋ
-0.2336408	57 wa dzə́ŋ
-0.23566519	91 ma dzə́ŋ
-0.34262413	bílɔ́g ma dzə́ŋ
-0.6352309	vé wa sɔ́
-0.23379971	58 wa sɔ́
-0.23577225	59 ma fas
-0.34280264	fas ma fas
-1.9223881	o nə abán
-1.9223881	a nə ebyandí
-1.9223881	a nə fəg
-0.23561192	64 a bə̌bə
-0.34253535	dzóbo a bə̌bə
-0.59651065	a bə̌bə ǹló
-0.59651065	bə̌bə ǹló dzóbo
-1.4262086	kə kə óyɔ́
-0.47603065	nyé bídí vááni
-0.16363117	<s> 66 vááni
-0.23561192	67 a wɔ́bɔ
-0.34253535	wɔ́bɔ a wɔ́bɔ
-0.16363117	<s> 68 kələ́
-0.43665868	fəb ndóan kələ́
-0.21662833	68 kələ́ fəb
-0.31134135	ndóan kələ́ fəb
-0.59651065	kələ́ fəb ndóan
-0.7818179	nə vé mvyě
-0.16363117	<s> 69 mvyě
-0.7818179	nə vé etǔn
-0.16363117	<s> 70 etǔn
-1.4224862	dúgan á ndá
-0.3110835	vé etǔn ndá
-0.21646917	70 etǔn ndá
-0.8951358	etǔn ndá dzáma
-0.7818179	anə vé esɔ́á
-0.16363117	<s> 71 esɔ́á
-0.7818179	anə vé nyɔá
-0.16363117	<s> 73 nyɔá
-1.9223881	bə́ nə bɔ̌bə̄dzǎŋ
-0.16363117	<s> 75 ńnyə
-0.43665868	anə́ ńtól ńnyə
-0.21662833	75 ńnyə anə́
-0.31134135	ńtól ńnyə anə́
-0.59651065	ńnyə anə́ ńtól
-1.4273756	kə á dulu
-0.59651065	á dulu okídí
-0.512053	bí nə bikai
-0.16363117	<s> 77 bikai
-0.31045407	nə bikai bí
-0.21608052	77 bikai bí
-0.1633559	<s> 101 bí
-0.43603855	yə̄gé abuí bí
-0.49444547	yá nyəb enyiŋ
-0.16363117	<s> 78 enyiŋ
-0.23561192	79 a dzə́m
-0.8149591	m̀bəŋ a dzə́m
-0.59401846	a dzə́m m̀bəŋ
-0.59401846	a bɔ́d m̀bəŋ
-0.59401846	bɔ́ bía m̀bəŋ
-0.23577225	80 ma yəm
-0.34280264	afan ma yəm
-0.59651065	ma yəm afan
-0.8149591	m̀bəŋ a bɔ́d
-0.23561192	82 a bɔ́d
-0.47603065	dáma dí akúma
-0.16363117	<s> 83 akúma
-0.3110835	dí akúma dáma
-0.21646917	83 akúma dáma
-0.59578544	bələ̄ dzwé dáma
-0.8149591	m̀bəŋ a bɔ́
-0.23561192	84 a bɔ́
-0.59651065	a bɔ́ bía
-0.66712743	yǎ dzāl bəyə́bə
-0.16363117	<s> 85 bəyə́bə
-1.9223881	bə́ nə ā
-0.59651065	nə ā zěn
-0.21563917	87 a tádi
-0.30973962	m̀bíl a tádi
-0.21563917	99 a tádi
-0.30973962	ayón a tádi
-0.8951358	a tádi nə̌
-0.59651065	tádi nə̌ atyé
-0.59651065	nə̌ atyé m̀bíl
-0.23577225	88 ma və́
-0.34280264	ǹtsogán ma və́
-1.7334187	və́ wa ǹtsogán
-0.16363117	<s> 89 dzam
-0.43665868	dzam éngóngɔ́l dzam
-0.21662833	89 dzam éngóngɔ́l
-0.31134135	éngóngɔ́l dzam éngóngɔ́l
-0.16363117	<s> 90 mə̌
-0.43665868	mə̌ sende mə̌
-0.21662833	90 mə̌ sende
-0.31134135	sende mə̌ sende
-0.8951358	ma dzə́ŋ bílɔ́g
-0.34253535	dáma a bələ̄
-0.23561192	92 a bələ̄
-0.59651065	a bələ̄ dzwé
-0.23577225	93 ma kus
-0.34280264	biyé ma kus
-0.59651065	ma kus biyé
-1.9223881	mayi nə mayəm
-0.23561192	96 a yen
-0.34253535	mininagá a yen
-0.59651065	a yen mininagá
-1.1913958	ma wóg sɔ́m
-0.23561192	98 a dúgan
-0.34253535	dzié a dúgan
-0.8951358	á ndá dzié
-1.9223881	tádi nə ayón
-0.23379971	100 wa dzáɛ
-0.33951914	abǒg wa dzáɛ
-0.59651065	wa dzáɛ abǒg
-0.22318015	101 bí yə̄gé
-0.32200882	abuí bí yə̄gé
-0.59651065	bí yə̄gé abuí
-0.16363117	<s> 102 miǹkúd
-0.43665868	miǹkúd myávín miǹkúd
-0.21662833	102 miǹkúd myávín
-0.31134135	myávín miǹkúd myávín
-0.16363117	<s> 103 ngə
-0.43665868	mə yəmə ngə
-1.5468887	ngə mə yəmə
-0.23577225	104 ma kədzɔág
-0.34280264	kədzɔág ma kədzɔág
-1.3707975	a bə́ âfúb
-0.23561192	106 a búg
-0.34253535	fón a búg
-0.59651065	a búg fón
-0.23561192	107 a daŋ
-0.34253535	dzǎl a daŋ
-1.4273756	nyəb á dzǎl
-1.9223881	a nə ewólo
-1.1913958	ma wóg miǹtag
-1.9223881	o nə engongɔ́l
-0.7040913	élé ásí ǹnǒm
-0.16363117	<s> 111 ǹnǒm

\end\
